digraph Tree {
node [shape=box, style="filled", color="black"] ;
0 [label="X[3] <= 189401600.0\nmse = 11.005\nsamples = 64\nvalue = 0.416", fillcolor="#e581398d"] ;
1 [label="X[3] <= 5000750.0\nmse = 9.61\nsamples = 62\nvalue = 0.191", fillcolor="#e581398a"] ;
0 -> 1 [labeldistance=2.5, labelangle=45, headlabel="True"] ;
2 [label="X[4] <= -0.005\nmse = 2.916\nsamples = 41\nvalue = 1.081", fillcolor="#e5813995"] ;
1 -> 2 ;
3 [label="X[5] <= 21272300.0\nmse = 2.654\nsamples = 16\nvalue = 1.92", fillcolor="#e58139a0"] ;
2 -> 3 ;
4 [label="X[5] <= -15201400.0\nmse = 2.612\nsamples = 13\nvalue = 1.592", fillcolor="#e581399c"] ;
3 -> 4 ;
5 [label="X[5] <= -53195200.0\nmse = 2.056\nsamples = 10\nvalue = 2.031", fillcolor="#e58139a1"] ;
4 -> 5 ;
6 [label="X[2] <= 3.015\nmse = 1.218\nsamples = 6\nvalue = 1.118", fillcolor="#e5813996"] ;
5 -> 6 ;
7 [label="X[2] <= -0.33\nmse = 0.519\nsamples = 5\nvalue = 0.722", fillcolor="#e5813991"] ;
6 -> 7 ;
8 [label="X[3] <= -34514400.0\nmse = 0.123\nsamples = 2\nvalue = 1.28", fillcolor="#e5813998"] ;
7 -> 8 ;
9 [label="mse = 0.0\nsamples = 1\nvalue = 0.93", fillcolor="#e5813993"] ;
8 -> 9 ;
10 [label="mse = 0.0\nsamples = 1\nvalue = 1.63", fillcolor="#e581399c"] ;
8 -> 10 ;
11 [label="X[4] <= -2.26\nmse = 0.438\nsamples = 3\nvalue = 0.35", fillcolor="#e581398c"] ;
7 -> 11 ;
12 [label="X[4] <= -2.9\nmse = 0.022\nsamples = 2\nvalue = 0.81", fillcolor="#e5813992"] ;
11 -> 12 ;
13 [label="mse = 0.0\nsamples = 1\nvalue = 0.66", fillcolor="#e5813990"] ;
12 -> 13 ;
14 [label="mse = 0.0\nsamples = 1\nvalue = 0.96", fillcolor="#e5813994"] ;
12 -> 14 ;
15 [label="mse = 0.0\nsamples = 1\nvalue = -0.57", fillcolor="#e5813980"] ;
11 -> 15 ;
16 [label="mse = -0.0\nsamples = 1\nvalue = 3.1", fillcolor="#e58139af"] ;
6 -> 16 ;
17 [label="X[3] <= -11913200.0\nmse = 0.189\nsamples = 4\nvalue = 3.4", fillcolor="#e58139b2"] ;
5 -> 17 ;
18 [label="X[5] <= -44291550.0\nmse = 0.064\nsamples = 3\nvalue = 3.617", fillcolor="#e58139b5"] ;
17 -> 18 ;
19 [label="mse = 0.0\nsamples = 1\nvalue = 3.93", fillcolor="#e58139b9"] ;
18 -> 19 ;
20 [label="X[5] <= -34178650.0\nmse = 0.023\nsamples = 2\nvalue = 3.46", fillcolor="#e58139b3"] ;
18 -> 20 ;
21 [label="mse = 0.0\nsamples = 1\nvalue = 3.61", fillcolor="#e58139b5"] ;
20 -> 21 ;
22 [label="mse = 0.0\nsamples = 1\nvalue = 3.31", fillcolor="#e58139b1"] ;
20 -> 22 ;
23 [label="mse = 0.0\nsamples = 1\nvalue = 2.75", fillcolor="#e58139aa"] ;
17 -> 23 ;
24 [label="X[4] <= -1.55\nmse = 1.686\nsamples = 3\nvalue = 0.13", fillcolor="#e5813989"] ;
4 -> 24 ;
25 [label="X[4] <= -2.275\nmse = 0.608\nsamples = 2\nvalue = 0.93", fillcolor="#e5813993"] ;
24 -> 25 ;
26 [label="mse = 0.0\nsamples = 1\nvalue = 0.15", fillcolor="#e5813989"] ;
25 -> 26 ;
27 [label="mse = 0.0\nsamples = 1\nvalue = 1.71", fillcolor="#e581399d"] ;
25 -> 27 ;
28 [label="mse = 0.0\nsamples = 1\nvalue = -1.47", fillcolor="#e5813975"] ;
24 -> 28 ;
29 [label="X[3] <= -16112800.0\nmse = 0.352\nsamples = 3\nvalue = 3.34", fillcolor="#e58139b2"] ;
3 -> 29 ;
30 [label="X[4] <= -0.25\nmse = 0.24\nsamples = 2\nvalue = 3.65", fillcolor="#e58139b6"] ;
29 -> 30 ;
31 [label="mse = 0.0\nsamples = 1\nvalue = 4.14", fillcolor="#e58139bc"] ;
30 -> 31 ;
32 [label="mse = 0.0\nsamples = 1\nvalue = 3.16", fillcolor="#e58139af"] ;
30 -> 32 ;
33 [label="mse = 0.0\nsamples = 1\nvalue = 2.72", fillcolor="#e58139aa"] ;
29 -> 33 ;
34 [label="X[4] <= 6.495\nmse = 2.345\nsamples = 25\nvalue = 0.544", fillcolor="#e581398e"] ;
2 -> 34 ;
35 [label="X[2] <= 0.595\nmse = 1.703\nsamples = 23\nvalue = 0.341", fillcolor="#e581398c"] ;
34 -> 35 ;
36 [label="X[4] <= 0.83\nmse = 1.347\nsamples = 14\nvalue = 0.897", fillcolor="#e5813993"] ;
35 -> 36 ;
37 [label="X[3] <= -6648200.0\nmse = 0.35\nsamples = 5\nvalue = 0.122", fillcolor="#e5813989"] ;
36 -> 37 ;
38 [label="X[4] <= 0.02\nmse = 0.085\nsamples = 4\nvalue = 0.387", fillcolor="#e581398c"] ;
37 -> 38 ;
39 [label="mse = 0.0\nsamples = 1\nvalue = 0.81", fillcolor="#e5813992"] ;
38 -> 39 ;
40 [label="X[5] <= 6606250.0\nmse = 0.034\nsamples = 3\nvalue = 0.247", fillcolor="#e581398a"] ;
38 -> 40 ;
41 [label="X[3] <= -13970400.0\nmse = 0.005\nsamples = 2\nvalue = 0.37", fillcolor="#e581398c"] ;
40 -> 41 ;
42 [label="mse = 0.0\nsamples = 1\nvalue = 0.3", fillcolor="#e581398b"] ;
41 -> 42 ;
43 [label="mse = 0.0\nsamples = 1\nvalue = 0.44", fillcolor="#e581398d"] ;
41 -> 43 ;
44 [label="mse = 0.0\nsamples = 1\nvalue = 0.0", fillcolor="#e5813987"] ;
40 -> 44 ;
45 [label="mse = 0.0\nsamples = 1\nvalue = -0.94", fillcolor="#e581397b"] ;
37 -> 45 ;
46 [label="X[5] <= 39225800.0\nmse = 1.382\nsamples = 9\nvalue = 1.328", fillcolor="#e5813998"] ;
36 -> 46 ;
47 [label="X[5] <= 14596000.0\nmse = 0.739\nsamples = 8\nvalue = 1.629", fillcolor="#e581399c"] ;
46 -> 47 ;
48 [label="X[3] <= -39003000.0\nmse = 0.267\nsamples = 7\nvalue = 1.36", fillcolor="#e5813999"] ;
47 -> 48 ;
49 [label="X[3] <= -43568600.0\nmse = 0.154\nsamples = 4\nvalue = 1.04", fillcolor="#e5813995"] ;
48 -> 49 ;
50 [label="X[4] <= 4.885\nmse = 0.034\nsamples = 3\nvalue = 1.247", fillcolor="#e5813997"] ;
49 -> 50 ;
51 [label="X[3] <= -47798200.0\nmse = 0.01\nsamples = 2\nvalue = 1.13", fillcolor="#e5813996"] ;
50 -> 51 ;
52 [label="mse = 0.0\nsamples = 1\nvalue = 1.03", fillcolor="#e5813994"] ;
51 -> 52 ;
53 [label="mse = -0.0\nsamples = 1\nvalue = 1.23", fillcolor="#e5813997"] ;
51 -> 53 ;
54 [label="mse = 0.0\nsamples = 1\nvalue = 1.48", fillcolor="#e581399a"] ;
50 -> 54 ;
55 [label="mse = 0.0\nsamples = 1\nvalue = 0.42", fillcolor="#e581398d"] ;
49 -> 55 ;
56 [label="X[5] <= 3177400.0\nmse = 0.099\nsamples = 3\nvalue = 1.787", fillcolor="#e581399e"] ;
48 -> 56 ;
57 [label="X[5] <= -14199200.0\nmse = 0.006\nsamples = 2\nvalue = 2.005", fillcolor="#e58139a1"] ;
56 -> 57 ;
58 [label="mse = 0.0\nsamples = 1\nvalue = 1.93", fillcolor="#e58139a0"] ;
57 -> 58 ;
59 [label="mse = 0.0\nsamples = 1\nvalue = 2.08", fillcolor="#e58139a2"] ;
57 -> 59 ;
60 [label="mse = -0.0\nsamples = 1\nvalue = 1.35", fillcolor="#e5813998"] ;
56 -> 60 ;
61 [label="mse = 0.0\nsamples = 1\nvalue = 3.51", fillcolor="#e58139b4"] ;
47 -> 61 ;
62 [label="mse = -0.0\nsamples = 1\nvalue = -1.08", fillcolor="#e581397a"] ;
46 -> 62 ;
63 [label="X[4] <= 1.8\nmse = 1.029\nsamples = 9\nvalue = -0.523", fillcolor="#e5813981"] ;
35 -> 63 ;
64 [label="X[3] <= -31897400.0\nmse = 0.126\nsamples = 2\nvalue = -2.065", fillcolor="#e581396d"] ;
63 -> 64 ;
65 [label="mse = 0.0\nsamples = 1\nvalue = -1.71", fillcolor="#e5813972"] ;
64 -> 65 ;
66 [label="mse = 0.0\nsamples = 1\nvalue = -2.42", fillcolor="#e5813969"] ;
64 -> 66 ;
67 [label="X[5] <= -41062400.0\nmse = 0.414\nsamples = 7\nvalue = -0.083", fillcolor="#e5813986"] ;
63 -> 67 ;
68 [label="X[5] <= -141539200.0\nmse = 0.32\nsamples = 3\nvalue = -0.503", fillcolor="#e5813981"] ;
67 -> 68 ;
69 [label="mse = 0.0\nsamples = 1\nvalue = 0.24", fillcolor="#e581398a"] ;
68 -> 69 ;
70 [label="X[4] <= 2.91\nmse = 0.065\nsamples = 2\nvalue = -0.875", fillcolor="#e581397c"] ;
68 -> 70 ;
71 [label="mse = 0.0\nsamples = 1\nvalue = -1.13", fillcolor="#e5813979"] ;
70 -> 71 ;
72 [label="mse = 0.0\nsamples = 1\nvalue = -0.62", fillcolor="#e5813980"] ;
70 -> 72 ;
73 [label="X[5] <= 37218200.0\nmse = 0.252\nsamples = 4\nvalue = 0.232", fillcolor="#e581398a"] ;
67 -> 73 ;
74 [label="X[5] <= -10763000.0\nmse = 0.021\nsamples = 3\nvalue = 0.513", fillcolor="#e581398e"] ;
73 -> 74 ;
75 [label="X[3] <= -13090800.0\nmse = 0.006\nsamples = 2\nvalue = 0.605", fillcolor="#e581398f"] ;
74 -> 75 ;
76 [label="mse = 0.0\nsamples = 1\nvalue = 0.68", fillcolor="#e5813990"] ;
75 -> 76 ;
77 [label="mse = 0.0\nsamples = 1\nvalue = 0.53", fillcolor="#e581398e"] ;
75 -> 77 ;
78 [label="mse = 0.0\nsamples = 1\nvalue = 0.33", fillcolor="#e581398c"] ;
74 -> 78 ;
79 [label="mse = -0.0\nsamples = 1\nvalue = -0.61", fillcolor="#e5813980"] ;
73 -> 79 ;
80 [label="X[3] <= -69709100.0\nmse = 3.803\nsamples = 2\nvalue = 2.88", fillcolor="#e58139ac"] ;
34 -> 80 ;
81 [label="mse = 0.0\nsamples = 1\nvalue = 4.83", fillcolor="#e58139c5"] ;
80 -> 81 ;
82 [label="mse = 0.0\nsamples = 1\nvalue = 0.93", fillcolor="#e5813993"] ;
80 -> 82 ;
83 [label="X[4] <= 5.085\nmse = 18.113\nsamples = 21\nvalue = -1.547", fillcolor="#e5813974"] ;
1 -> 83 ;
84 [label="X[4] <= -1.625\nmse = 14.39\nsamples = 18\nvalue = -0.667", fillcolor="#e581397f"] ;
83 -> 84 ;
85 [label="X[2] <= -8.76\nmse = 0.138\nsamples = 3\nvalue = -6.32", fillcolor="#e5813937"] ;
84 -> 85 ;
86 [label="mse = 0.0\nsamples = 1\nvalue = -6.84", fillcolor="#e5813931"] ;
85 -> 86 ;
87 [label="X[3] <= 91505200.0\nmse = 0.004\nsamples = 2\nvalue = -6.06", fillcolor="#e581393b"] ;
85 -> 87 ;
88 [label="mse = 0.0\nsamples = 1\nvalue = -6.12", fillcolor="#e581393a"] ;
87 -> 88 ;
89 [label="mse = 0.0\nsamples = 1\nvalue = -6.0", fillcolor="#e581393b"] ;
87 -> 89 ;
90 [label="X[4] <= -0.175\nmse = 9.571\nsamples = 15\nvalue = 0.463", fillcolor="#e581398d"] ;
84 -> 90 ;
91 [label="X[2] <= 1.075\nmse = 13.764\nsamples = 2\nvalue = 4.97", fillcolor="#e58139c6"] ;
90 -> 91 ;
92 [label="mse = 0.0\nsamples = 1\nvalue = 8.68", fillcolor="#e58139f5"] ;
91 -> 92 ;
93 [label="mse = -0.0\nsamples = 1\nvalue = 1.26", fillcolor="#e5813997"] ;
91 -> 93 ;
94 [label="X[5] <= 17699000.0\nmse = 5.321\nsamples = 13\nvalue = -0.23", fillcolor="#e5813984"] ;
90 -> 94 ;
95 [label="X[5] <= -24269350.0\nmse = 1.539\nsamples = 6\nvalue = -1.612", fillcolor="#e5813973"] ;
94 -> 95 ;
96 [label="mse = 0.0\nsamples = 1\nvalue = 0.25", fillcolor="#e581398b"] ;
95 -> 96 ;
97 [label="X[3] <= 29424950.0\nmse = 1.015\nsamples = 5\nvalue = -1.984", fillcolor="#e581396e"] ;
95 -> 97 ;
98 [label="X[2] <= 2.415\nmse = 0.65\nsamples = 3\nvalue = -1.343", fillcolor="#e5813976"] ;
97 -> 98 ;
99 [label="X[3] <= 11454400.0\nmse = 0.023\nsamples = 2\nvalue = -0.78", fillcolor="#e581397d"] ;
98 -> 99 ;
100 [label="mse = 0.0\nsamples = 1\nvalue = -0.93", fillcolor="#e581397c"] ;
99 -> 100 ;
101 [label="mse = 0.0\nsamples = 1\nvalue = -0.63", fillcolor="#e581397f"] ;
99 -> 101 ;
102 [label="mse = 0.0\nsamples = 1\nvalue = -2.47", fillcolor="#e5813968"] ;
98 -> 102 ;
103 [label="X[3] <= 56113150.0\nmse = 0.024\nsamples = 2\nvalue = -2.945", fillcolor="#e5813962"] ;
97 -> 103 ;
104 [label="mse = 0.0\nsamples = 1\nvalue = -3.1", fillcolor="#e5813960"] ;
103 -> 104 ;
105 [label="mse = 0.0\nsamples = 1\nvalue = -2.79", fillcolor="#e5813964"] ;
103 -> 105 ;
106 [label="X[3] <= 90914400.0\nmse = 5.523\nsamples = 7\nvalue = 0.954", fillcolor="#e5813993"] ;
94 -> 106 ;
107 [label="X[5] <= 27666800.0\nmse = 3.766\nsamples = 5\nvalue = 1.984", fillcolor="#e58139a1"] ;
106 -> 107 ;
108 [label="X[2] <= 0.25\nmse = 0.556\nsamples = 3\nvalue = 0.58", fillcolor="#e581398f"] ;
107 -> 108 ;
109 [label="mse = 0.0\nsamples = 1\nvalue = 1.57", fillcolor="#e581399b"] ;
108 -> 109 ;
110 [label="X[3] <= 42020800.0\nmse = 0.099\nsamples = 2\nvalue = 0.085", fillcolor="#e5813988"] ;
108 -> 110 ;
111 [label="mse = 0.0\nsamples = 1\nvalue = -0.23", fillcolor="#e5813984"] ;
110 -> 111 ;
112 [label="mse = 0.0\nsamples = 1\nvalue = 0.4", fillcolor="#e581398c"] ;
110 -> 112 ;
113 [label="X[5] <= 49753752.0\nmse = 1.188\nsamples = 2\nvalue = 4.09", fillcolor="#e58139bb"] ;
107 -> 113 ;
114 [label="mse = 0.0\nsamples = 1\nvalue = 3.0", fillcolor="#e58139ad"] ;
113 -> 114 ;
115 [label="mse = -0.0\nsamples = 1\nvalue = 5.18", fillcolor="#e58139c9"] ;
113 -> 115 ;
116 [label="X[5] <= 108038000.0\nmse = 0.64\nsamples = 2\nvalue = -1.62", fillcolor="#e5813973"] ;
106 -> 116 ;
117 [label="mse = 0.0\nsamples = 1\nvalue = -2.42", fillcolor="#e5813969"] ;
116 -> 117 ;
118 [label="mse = 0.0\nsamples = 1\nvalue = -0.82", fillcolor="#e581397d"] ;
116 -> 118 ;
119 [label="X[3] <= 27765850.0\nmse = 7.971\nsamples = 3\nvalue = -6.823", fillcolor="#e5813931"] ;
83 -> 119 ;
120 [label="X[3] <= 6608350.0\nmse = 0.801\nsamples = 2\nvalue = -4.895", fillcolor="#e5813949"] ;
119 -> 120 ;
121 [label="mse = 0.0\nsamples = 1\nvalue = -5.79", fillcolor="#e581393e"] ;
120 -> 121 ;
122 [label="mse = 0.0\nsamples = 1\nvalue = -4.0", fillcolor="#e5813955"] ;
120 -> 122 ;
123 [label="mse = 0.0\nsamples = 1\nvalue = -10.68", fillcolor="#e5813900"] ;
119 -> 123 ;
124 [label="X[2] <= 6.095\nmse = 4.264\nsamples = 2\nvalue = 7.375", fillcolor="#e58139e5"] ;
0 -> 124 [labeldistance=2.5, labelangle=-45, headlabel="False"] ;
125 [label="mse = 0.0\nsamples = 1\nvalue = 9.44", fillcolor="#e58139ff"] ;
124 -> 125 ;
126 [label="mse = -0.0\nsamples = 1\nvalue = 5.31", fillcolor="#e58139cb"] ;
124 -> 126 ;
}